Language model created by QuickLM on Wed Sep 21 23:49:02 EDT 2011
Copyright (c) 1996-2010 Carnegie Mellon University and Alexander I. Rudnicky

The model is in standard ARPA format, designed by Doug Paul while he was at MITRE.

The code that was used to produce this language model is available in Open Source.
Please visit http://www.speech.cs.cmu.edu/tools/ for more information

The (fixed) discount mass is 0.5. The backoffs are computed using the ratio method.
This model based on a corpus of 135 sentences and 117 words

\data\
ngram 1=117
ngram 2=255
ngram 3=195

\1-grams:
-0.8381 </s> -0.3010
-0.8381 <s> -0.2151
-2.6675 ACTION -0.2996
-2.6675 ALPHA -0.2329
-2.9685 ALTER -0.2329
-2.9685 AMPERSAND -0.2329
-2.9685 APHA -0.3006
-2.9685 APPLICATION -0.2329
-2.3664 ARROW -0.2954
-2.4914 BACK -0.2307
-2.9685 BACKSLASH -0.2329
-2.6675 BRACE -0.2329
-2.6675 BRACKET -0.2329
-2.9685 BRAVO -0.2329
-2.9685 CAPS -0.3006
-2.9685 CARROT -0.2329
-2.9685 CHARLIE -0.2329
-2.9685 CLICK -0.2329
-2.4914 CLIPBOARD -0.2996
-2.9685 COLON -0.2329
-2.9685 COMMA -0.2329
-2.9685 CONTROL -0.2329
-2.9685 COPY -0.2329
-2.9685 CUT -0.2329
-2.9685 DELETE -0.2329
-2.9685 DELTA -0.2329
-2.9685 DOLLAR -0.2329
-2.9685 DOUBLE -0.3006
-2.6675 DOWN -0.2329
-2.9685 ECHO -0.2329
-2.3664 EIGHT -0.2307
-2.6675 ELEVEN -0.2329
-2.9685 END -0.2329
-2.9685 EQUAL -0.2329
-2.9685 ESCAPE -0.2329
-2.9685 EXCLAMATION -0.2329
-2.4914 FIVE -0.2329
-2.4914 FOUR -0.2329
-1.8545 FOXTROT -0.2128
-2.9685 GOLF -0.2329
-2.9685 GOODBYE -0.2329
-2.9685 GREATER -0.3001
-2.9685 HIGH -0.3001
-2.9685 HOME -0.2329
-2.9685 HOTEL -0.2329
-2.9685 HYPHEN -0.2329
-2.9685 INDIA -0.2329
-2.9685 JULIET -0.2329
-2.9685 KILO -0.2329
-2.3664 LEFT -0.2296
-2.9685 LESS -0.3001
-2.9685 LIMA -0.2329
-2.6675 LINE -0.2329
-2.9685 LOCK -0.2329
-2.9685 MAIN -0.2329
-2.9685 MAXIMIZE -0.2329
-2.9685 MENU -0.2329
-2.9685 MIKE -0.2329
-2.9685 MINIMIZE -0.2329
-2.9685 MINUS -0.2329
-2.9685 MOUSE -0.2329
-2.6675 NAME -0.2992
-2.9685 NEXT -0.2996
-2.4914 NINE -0.2329
-2.9685 NOVEMBER -0.2329
-2.3664 NUMBER -0.2285
-2.4914 ONE -0.2329
-2.9685 OSCAR -0.2329
-2.6675 PAGE -0.2992
-2.9685 PAPA -0.2329
-2.6675 PARENTHESES -0.2329
-2.4914 PASSWORD -0.2996
-2.9685 PASTE -0.2329
-2.9685 PERCENT -0.2329
-2.9685 PERIOD -0.2329
-2.9685 PLUS -0.2329
-2.9685 POUND -0.2329
-2.9685 QUEBEC -0.2329
-2.9685 QUESTION -0.2329
-2.6675 QUOTE -0.2329
-2.9685 RELEASE -0.2329
-2.9685 REPEAT -0.2329
-2.9685 RETURN -0.2329
-2.3664 RIGHT -0.2296
-2.9685 ROMEO -0.2329
-2.6675 SELECT -0.2987
-2.9685 SEMICOLON -0.2329
-2.4914 SEVEN -0.2329
-2.9685 SHIFT -0.2329
-2.9685 SIERRA -0.2329
-2.9685 SIGN -0.2329
-2.9685 SINGLE -0.3001
-2.3664 SIX -0.2307
-2.9685 SLASH -0.2329
-2.9685 SPACE -0.2329
-2.9685 SPACER -0.2329
-2.9685 STAR -0.2329
-2.6675 START -0.2329
-2.9685 STOP -0.2329
-2.9685 TAB -0.2329
-2.9685 TANGO -0.2329
-2.4914 TEN -0.2329
-2.6675 THAN -0.2329
-2.4914 THREE -0.2329
-1.9685 TIMES -0.2858
-2.6675 TWELVE -0.2329
-2.4914 TWO -0.2329
-2.9685 UNDER -0.2329
-2.9685 UNIFORM -0.2329
-2.6675 UP -0.2329
-2.9685 VICTOR -0.2329
-2.6675 WHISKEY -0.2329
-2.4914 WORD -0.2329
-2.9685 X-RAY -0.2329
-2.9685 YANKEE -0.2329
-2.9685 ZERO -0.2329
-2.9685 ZULU -0.2329

\2-grams:
-2.1303 <s> ACTION 0.0000
-2.4314 <s> ALPHA 0.0000
-2.4314 <s> ALTER 0.0000
-2.4314 <s> AMPERSAND 0.0000
-2.4314 <s> APHA 0.0000
-1.8293 <s> ARROW 0.0000
-1.9542 <s> BACK 0.0000
-2.4314 <s> BACKSLASH 0.0000
-2.4314 <s> BRAVO 0.0000
-2.4314 <s> CAPS 0.0000
-2.4314 <s> CARROT 0.0000
-2.4314 <s> CHARLIE 0.0000
-1.9542 <s> CLIPBOARD 0.0000
-2.4314 <s> COLON 0.0000
-2.4314 <s> COMMA 0.0000
-2.4314 <s> CONTROL 0.0000
-2.4314 <s> DELETE 0.0000
-2.4314 <s> DELTA 0.0000
-2.4314 <s> DOLLAR 0.0000
-2.4314 <s> DOUBLE 0.0000
-2.4314 <s> ECHO 0.0000
-2.4314 <s> EIGHT -0.2430
-2.4314 <s> ELEVEN 0.0000
-2.4314 <s> END 0.0000
-2.4314 <s> EQUAL 0.0000
-2.4314 <s> ESCAPE 0.0000
-2.4314 <s> EXCLAMATION 0.0000
-2.4314 <s> FIVE 0.0000
-2.4314 <s> FOUR 0.0000
-1.3174 <s> FOXTROT -0.0000
-2.4314 <s> GOLF 0.0000
-2.4314 <s> GOODBYE 0.0000
-2.4314 <s> GREATER 0.0000
-2.4314 <s> HOME 0.0000
-2.4314 <s> HOTEL 0.0000
-2.4314 <s> HYPHEN 0.0000
-2.4314 <s> INDIA 0.0000
-2.4314 <s> JULIET 0.0000
-2.4314 <s> KILO 0.0000
-1.9542 <s> LEFT -0.0969
-2.4314 <s> LESS 0.0000
-2.4314 <s> LIMA 0.0000
-2.4314 <s> MAXIMIZE 0.0000
-2.4314 <s> MENU 0.0000
-2.4314 <s> MIKE 0.0000
-2.4314 <s> MINIMIZE 0.0000
-2.4314 <s> MINUS 0.0000
-2.4314 <s> MOUSE 0.0000
-2.1303 <s> NAME 0.0000
-2.4314 <s> NEXT 0.0000
-2.4314 <s> NINE 0.0000
-2.4314 <s> NOVEMBER 0.0000
-2.1303 <s> NUMBER -0.1761
-2.4314 <s> ONE 0.0000
-2.4314 <s> OSCAR 0.0000
-2.1303 <s> PAGE 0.0000
-2.4314 <s> PAPA 0.0000
-1.9542 <s> PASSWORD 0.0000
-2.4314 <s> PERCENT 0.0000
-2.4314 <s> PERIOD 0.0000
-2.4314 <s> PLUS 0.0000
-2.4314 <s> POUND 0.0000
-2.4314 <s> QUEBEC 0.0000
-2.4314 <s> QUESTION 0.0000
-2.4314 <s> QUOTE 0.0000
-2.4314 <s> RELEASE 0.0000
-2.4314 <s> REPEAT 0.0000
-2.4314 <s> RETURN 0.0000
-1.9542 <s> RIGHT -0.0969
-2.4314 <s> ROMEO 0.0000
-2.1303 <s> SELECT 0.0000
-2.4314 <s> SEMICOLON 0.0000
-2.4314 <s> SEVEN 0.0000
-2.4314 <s> SHIFT 0.0000
-2.4314 <s> SIERRA 0.0000
-2.4314 <s> SINGLE 0.0000
-2.4314 <s> SIX -0.2430
-2.4314 <s> SLASH 0.0000
-2.4314 <s> SPACER 0.0000
-2.4314 <s> STAR 0.0000
-2.4314 <s> START 0.0000
-2.4314 <s> TAB 0.0000
-2.4314 <s> TANGO 0.0000
-2.4314 <s> TEN 0.0000
-2.4314 <s> THREE 0.0000
-1.4314 <s> TIMES 0.0000
-2.4314 <s> TWELVE 0.0000
-2.4314 <s> TWO 0.0000
-2.4314 <s> UNDER 0.0000
-2.4314 <s> UNIFORM 0.0000
-2.4314 <s> VICTOR 0.0000
-2.4314 <s> WHISKEY 0.0000
-2.4314 <s> X-RAY 0.0000
-2.4314 <s> YANKEE 0.0000
-2.4314 <s> ZERO 0.0000
-2.4314 <s> ZULU 0.0000
-0.6021 ACTION START 0.0000
-0.6021 ACTION STOP 0.0000
-0.3010 ALPHA </s> -0.3010
-0.3010 ALTER </s> -0.3010
-0.3010 AMPERSAND </s> -0.3010
-0.3010 APHA SIGN 0.0000
-0.3010 APPLICATION </s> -0.3010
-0.9031 ARROW DOWN 0.0000
-0.9031 ARROW LEFT -0.2430
-0.9031 ARROW RIGHT -0.2430
-0.9031 ARROW UP 0.0000
-0.7782 BACK </s> -0.3010
-0.7782 BACK SPACE 0.0000
-0.7782 BACK WORD 0.0000
-0.3010 BACKSLASH </s> -0.3010
-0.3010 BRACE </s> -0.3010
-0.3010 BRACKET </s> -0.3010
-0.3010 BRAVO </s> -0.3010
-0.3010 CAPS LOCK 0.0000
-0.3010 CARROT </s> -0.3010
-0.3010 CHARLIE </s> -0.3010
-0.3010 CLICK </s> -0.3010
-0.7782 CLIPBOARD COPY 0.0000
-0.7782 CLIPBOARD CUT 0.0000
-0.7782 CLIPBOARD PASTE 0.0000
-0.3010 COLON </s> -0.3010
-0.3010 COMMA </s> -0.3010
-0.3010 CONTROL </s> -0.3010
-0.3010 COPY </s> -0.3010
-0.3010 CUT </s> -0.3010
-0.3010 DELETE </s> -0.3010
-0.3010 DELTA </s> -0.3010
-0.3010 DOLLAR </s> -0.3010
-0.3010 DOUBLE CLICK 0.0000
-0.3010 DOWN </s> -0.3010
-0.3010 ECHO </s> -0.3010
-0.4260 EIGHT </s> -0.3010
-0.9031 EIGHT NUMBER -0.1761
-0.3010 ELEVEN </s> -0.3010
-0.3010 END </s> -0.3010
-0.3010 EQUAL </s> -0.3010
-0.3010 ESCAPE </s> -0.3010
-0.3010 EXCLAMATION </s> -0.3010
-0.3010 FIVE </s> -0.3010
-0.3010 FOUR </s> -0.3010
-1.4150 FOXTROT </s> -0.3010
-1.4150 FOXTROT EIGHT -0.0969
-1.4150 FOXTROT ELEVEN 0.0000
-1.4150 FOXTROT FIVE 0.0000
-1.4150 FOXTROT FOUR 0.0000
-1.4150 FOXTROT NINE 0.0000
-1.4150 FOXTROT ONE 0.0000
-1.4150 FOXTROT SEVEN 0.0000
-1.4150 FOXTROT SIX -0.0969
-1.4150 FOXTROT TEN 0.0000
-1.4150 FOXTROT THREE 0.0000
-1.4150 FOXTROT TWELVE 0.0000
-1.4150 FOXTROT TWO 0.0000
-0.3010 GOLF </s> -0.3010
-0.3010 GOODBYE </s> -0.3010
-0.3010 GREATER THAN 0.0000
-0.3010 HIGH LINE 0.0000
-0.3010 HOME </s> -0.3010
-0.3010 HOTEL </s> -0.3010
-0.3010 HYPHEN </s> -0.3010
-0.3010 INDIA </s> -0.3010
-0.3010 JULIET </s> -0.3010
-0.3010 KILO </s> -0.3010
-0.9031 LEFT </s> -0.3010
-0.9031 LEFT BRACE 0.0000
-0.9031 LEFT BRACKET 0.0000
-0.9031 LEFT PARENTHESES 0.0000
-0.3010 LESS THAN 0.0000
-0.3010 LIMA </s> -0.3010
-0.3010 LINE </s> -0.3010
-0.3010 LOCK </s> -0.3010
-0.3010 MAIN </s> -0.3010
-0.3010 MAXIMIZE </s> -0.3010
-0.3010 MENU </s> -0.3010
-0.3010 MIKE </s> -0.3010
-0.3010 MINIMIZE </s> -0.3010
-0.3010 MINUS </s> -0.3010
-0.3010 MOUSE </s> -0.3010
-0.6021 NAME ALPHA 0.0000
-0.6021 NAME WHISKEY 0.0000
-0.3010 NEXT WORD 0.0000
-0.3010 NINE </s> -0.3010
-0.3010 NOVEMBER </s> -0.3010
-0.6021 NUMBER </s> -0.3010
-0.9031 NUMBER EIGHT -0.0969
-0.9031 NUMBER SIX -0.0969
-0.3010 ONE </s> -0.3010
-0.3010 OSCAR </s> -0.3010
-0.6021 PAGE DOWN 0.0000
-0.6021 PAGE UP 0.0000
-0.3010 PAPA </s> -0.3010
-0.3010 PARENTHESES </s> -0.3010
-0.7782 PASSWORD APPLICATION 0.0000
-0.7782 PASSWORD HIGH 0.0000
-0.7782 PASSWORD MAIN 0.0000
-0.3010 PASTE </s> -0.3010
-0.3010 PERCENT </s> -0.3010
-0.3010 PERIOD </s> -0.3010
-0.3010 PLUS </s> -0.3010
-0.3010 POUND </s> -0.3010
-0.3010 QUEBEC </s> -0.3010
-0.3010 QUESTION </s> -0.3010
-0.3010 QUOTE </s> -0.3010
-0.3010 RELEASE </s> -0.3010
-0.3010 REPEAT </s> -0.3010
-0.3010 RETURN </s> -0.3010
-0.9031 RIGHT </s> -0.3010
-0.9031 RIGHT BRACE 0.0000
-0.9031 RIGHT BRACKET 0.0000
-0.9031 RIGHT PARENTHESES 0.0000
-0.3010 ROMEO </s> -0.3010
-0.6021 SELECT LINE 0.0000
-0.6021 SELECT WORD 0.0000
-0.3010 SEMICOLON </s> -0.3010
-0.3010 SEVEN </s> -0.3010
-0.3010 SHIFT </s> -0.3010
-0.3010 SIERRA </s> -0.3010
-0.3010 SIGN </s> -0.3010
-0.3010 SINGLE QUOTE 0.0000
-0.4260 SIX </s> -0.3010
-0.9031 SIX NUMBER -0.1761
-0.3010 SLASH </s> -0.3010
-0.3010 SPACE </s> -0.3010
-0.3010 SPACER </s> -0.3010
-0.3010 STAR </s> -0.3010
-0.3010 START </s> -0.3010
-0.3010 STOP </s> -0.3010
-0.3010 TAB </s> -0.3010
-0.3010 TANGO </s> -0.3010
-0.3010 TEN </s> -0.3010
-0.3010 THAN </s> -0.3010
-0.3010 THREE </s> -0.3010
-1.3010 TIMES EIGHT -0.0969
-1.3010 TIMES FIVE 0.0000
-1.3010 TIMES FOUR 0.0000
-1.3010 TIMES NINE 0.0000
-1.3010 TIMES ONE 0.0000
-1.3010 TIMES SEVEN 0.0000
-1.3010 TIMES SIX -0.0969
-1.3010 TIMES TEN 0.0000
-1.3010 TIMES THREE 0.0000
-1.3010 TIMES TWO 0.0000
-0.3010 TWELVE </s> -0.3010
-0.3010 TWO </s> -0.3010
-0.3010 UNDER </s> -0.3010
-0.3010 UNIFORM </s> -0.3010
-0.3010 UP </s> -0.3010
-0.3010 VICTOR </s> -0.3010
-0.3010 WHISKEY </s> -0.3010
-0.3010 WORD </s> -0.3010
-0.3010 X-RAY </s> -0.3010
-0.3010 YANKEE </s> -0.3010
-0.3010 ZERO </s> -0.3010
-0.3010 ZULU </s> -0.3010

\3-grams:
-0.6021 <s> ACTION START
-0.6021 <s> ACTION STOP
-0.3010 <s> ALPHA </s>
-0.3010 <s> ALTER </s>
-0.3010 <s> AMPERSAND </s>
-0.3010 <s> APHA SIGN
-0.9031 <s> ARROW DOWN
-0.9031 <s> ARROW LEFT
-0.9031 <s> ARROW RIGHT
-0.9031 <s> ARROW UP
-0.7782 <s> BACK </s>
-0.7782 <s> BACK SPACE
-0.7782 <s> BACK WORD
-0.3010 <s> BACKSLASH </s>
-0.3010 <s> BRAVO </s>
-0.3010 <s> CAPS LOCK
-0.3010 <s> CARROT </s>
-0.3010 <s> CHARLIE </s>
-0.7782 <s> CLIPBOARD COPY
-0.7782 <s> CLIPBOARD CUT
-0.7782 <s> CLIPBOARD PASTE
-0.3010 <s> COLON </s>
-0.3010 <s> COMMA </s>
-0.3010 <s> CONTROL </s>
-0.3010 <s> DELETE </s>
-0.3010 <s> DELTA </s>
-0.3010 <s> DOLLAR </s>
-0.3010 <s> DOUBLE CLICK
-0.3010 <s> ECHO </s>
-0.3010 <s> EIGHT NUMBER
-0.3010 <s> ELEVEN </s>
-0.3010 <s> END </s>
-0.3010 <s> EQUAL </s>
-0.3010 <s> ESCAPE </s>
-0.3010 <s> EXCLAMATION </s>
-0.3010 <s> FIVE </s>
-0.3010 <s> FOUR </s>
-1.4150 <s> FOXTROT </s>
-1.4150 <s> FOXTROT EIGHT
-1.4150 <s> FOXTROT ELEVEN
-1.4150 <s> FOXTROT FIVE
-1.4150 <s> FOXTROT FOUR
-1.4150 <s> FOXTROT NINE
-1.4150 <s> FOXTROT ONE
-1.4150 <s> FOXTROT SEVEN
-1.4150 <s> FOXTROT SIX
-1.4150 <s> FOXTROT TEN
-1.4150 <s> FOXTROT THREE
-1.4150 <s> FOXTROT TWELVE
-1.4150 <s> FOXTROT TWO
-0.3010 <s> GOLF </s>
-0.3010 <s> GOODBYE </s>
-0.3010 <s> GREATER THAN
-0.3010 <s> HOME </s>
-0.3010 <s> HOTEL </s>
-0.3010 <s> HYPHEN </s>
-0.3010 <s> INDIA </s>
-0.3010 <s> JULIET </s>
-0.3010 <s> KILO </s>
-0.7782 <s> LEFT BRACE
-0.7782 <s> LEFT BRACKET
-0.7782 <s> LEFT PARENTHESES
-0.3010 <s> LESS THAN
-0.3010 <s> LIMA </s>
-0.3010 <s> MAXIMIZE </s>
-0.3010 <s> MENU </s>
-0.3010 <s> MIKE </s>
-0.3010 <s> MINIMIZE </s>
-0.3010 <s> MINUS </s>
-0.3010 <s> MOUSE </s>
-0.6021 <s> NAME ALPHA
-0.6021 <s> NAME WHISKEY
-0.3010 <s> NEXT WORD
-0.3010 <s> NINE </s>
-0.3010 <s> NOVEMBER </s>
-0.6021 <s> NUMBER EIGHT
-0.6021 <s> NUMBER SIX
-0.3010 <s> ONE </s>
-0.3010 <s> OSCAR </s>
-0.6021 <s> PAGE DOWN
-0.6021 <s> PAGE UP
-0.3010 <s> PAPA </s>
-0.7782 <s> PASSWORD APPLICATION
-0.7782 <s> PASSWORD HIGH
-0.7782 <s> PASSWORD MAIN
-0.3010 <s> PERCENT </s>
-0.3010 <s> PERIOD </s>
-0.3010 <s> PLUS </s>
-0.3010 <s> POUND </s>
-0.3010 <s> QUEBEC </s>
-0.3010 <s> QUESTION </s>
-0.3010 <s> QUOTE </s>
-0.3010 <s> RELEASE </s>
-0.3010 <s> REPEAT </s>
-0.3010 <s> RETURN </s>
-0.7782 <s> RIGHT BRACE
-0.7782 <s> RIGHT BRACKET
-0.7782 <s> RIGHT PARENTHESES
-0.3010 <s> ROMEO </s>
-0.6021 <s> SELECT LINE
-0.6021 <s> SELECT WORD
-0.3010 <s> SEMICOLON </s>
-0.3010 <s> SEVEN </s>
-0.3010 <s> SHIFT </s>
-0.3010 <s> SIERRA </s>
-0.3010 <s> SINGLE QUOTE
-0.3010 <s> SIX NUMBER
-0.3010 <s> SLASH </s>
-0.3010 <s> SPACER </s>
-0.3010 <s> STAR </s>
-0.3010 <s> START </s>
-0.3010 <s> TAB </s>
-0.3010 <s> TANGO </s>
-0.3010 <s> TEN </s>
-0.3010 <s> THREE </s>
-1.3010 <s> TIMES EIGHT
-1.3010 <s> TIMES FIVE
-1.3010 <s> TIMES FOUR
-1.3010 <s> TIMES NINE
-1.3010 <s> TIMES ONE
-1.3010 <s> TIMES SEVEN
-1.3010 <s> TIMES SIX
-1.3010 <s> TIMES TEN
-1.3010 <s> TIMES THREE
-1.3010 <s> TIMES TWO
-0.3010 <s> TWELVE </s>
-0.3010 <s> TWO </s>
-0.3010 <s> UNDER </s>
-0.3010 <s> UNIFORM </s>
-0.3010 <s> VICTOR </s>
-0.3010 <s> WHISKEY </s>
-0.3010 <s> X-RAY </s>
-0.3010 <s> YANKEE </s>
-0.3010 <s> ZERO </s>
-0.3010 <s> ZULU </s>
-0.3010 ACTION START </s>
-0.3010 ACTION STOP </s>
-0.3010 APHA SIGN </s>
-0.3010 ARROW DOWN </s>
-0.3010 ARROW LEFT </s>
-0.3010 ARROW RIGHT </s>
-0.3010 ARROW UP </s>
-0.3010 BACK SPACE </s>
-0.3010 BACK WORD </s>
-0.3010 CAPS LOCK </s>
-0.3010 CLIPBOARD COPY </s>
-0.3010 CLIPBOARD CUT </s>
-0.3010 CLIPBOARD PASTE </s>
-0.3010 DOUBLE CLICK </s>
-0.3010 EIGHT NUMBER </s>
-0.3010 FOXTROT EIGHT </s>
-0.3010 FOXTROT ELEVEN </s>
-0.3010 FOXTROT FIVE </s>
-0.3010 FOXTROT FOUR </s>
-0.3010 FOXTROT NINE </s>
-0.3010 FOXTROT ONE </s>
-0.3010 FOXTROT SEVEN </s>
-0.3010 FOXTROT SIX </s>
-0.3010 FOXTROT TEN </s>
-0.3010 FOXTROT THREE </s>
-0.3010 FOXTROT TWELVE </s>
-0.3010 FOXTROT TWO </s>
-0.3010 GREATER THAN </s>
-0.3010 HIGH LINE </s>
-0.3010 LEFT BRACE </s>
-0.3010 LEFT BRACKET </s>
-0.3010 LEFT PARENTHESES </s>
-0.3010 LESS THAN </s>
-0.3010 NAME ALPHA </s>
-0.3010 NAME WHISKEY </s>
-0.3010 NEXT WORD </s>
-0.3010 NUMBER EIGHT </s>
-0.3010 NUMBER SIX </s>
-0.3010 PAGE DOWN </s>
-0.3010 PAGE UP </s>
-0.3010 PASSWORD APPLICATION </s>
-0.3010 PASSWORD HIGH LINE
-0.3010 PASSWORD MAIN </s>
-0.3010 RIGHT BRACE </s>
-0.3010 RIGHT BRACKET </s>
-0.3010 RIGHT PARENTHESES </s>
-0.3010 SELECT LINE </s>
-0.3010 SELECT WORD </s>
-0.3010 SINGLE QUOTE </s>
-0.3010 SIX NUMBER </s>
-0.3010 TIMES EIGHT </s>
-0.3010 TIMES FIVE </s>
-0.3010 TIMES FOUR </s>
-0.3010 TIMES NINE </s>
-0.3010 TIMES ONE </s>
-0.3010 TIMES SEVEN </s>
-0.3010 TIMES SIX </s>
-0.3010 TIMES TEN </s>
-0.3010 TIMES THREE </s>
-0.3010 TIMES TWO </s>

\end\
